 -0.76100351579000869 -1.2124449845935756 -0.10187130518269369 -2.3685008511942134 -1.057781287318013 -2.2082362949392556 0.56383834195581639 1.2110529401778158 2.2103099728239277 0.44456156215713866 -1.1824487219354427 1.0428911249844661 -1.6055875638960746 1.3041994344098733 1.3717504607896827 1.7482509462344349 -0.23365648340603609 -1.5201448310127617 1.1532417594748139 0.10368082291443596 -0.37207718720518279 -0.61530018764562122 -0.12568360013156785 -2.2719303848604921 -0.71836208347529307 -1.2969031476802002
 -0.61785176336903935 0.61559206815766143 -1.2655063873728949 1.8574541847255195 -0.91853319496223806 -0.055025892522631098 -0.38589806283019235 1.2952085294078461 -1.5684329694815942 -0.970264193999404 -2.1833489496779124 -2.8503357787855372 -2.0773308617581852 1.6316316356884066 0.34902289696037048 1.8278911684950494 -2.4417437918678373 -0.8563033965800565 -0.29825640345217669 -2.0794787342261669 -1.2933237993997697 0.89982031699490383 0.28306577506836611 2.311805252010839 -2.4644408596476937 1.4565654833320936
 -0.68934071932486152 -1.94538150673725 2.013606180762646 -3.1231618780792552 -0.23617629970695711 1.3868094701624283 0.9098242886127087 -1.547744160129823 -0.79830896485633107 -0.65599833731698742 0.73538330140167241 -2.5859329355039264 0.47210839264787446 0.55349498579241108 2.5125545312277326 -2.4167454043659435 -1.6389862670999762 1.2027302045928734 -1.2024585140578308 -1.8344595943867008 -1.8801302663048491 -0.34056098447028693 0.23692483312300855 -1.0613791894476552 1.0275923234079369 -0.47690831742168549
 -0.67832478720819467 0.46299226491144108 0.58492320521399543 -0.16501839969787307 1.9326419202991687 -0.22965765349768263 -1.8473149187799855 0.49011767565556513 1.0714605356468176 -3.3190564273257182 1.5411350741833088 0.37371947241731018 -0.86484681216184922 -2.5827352220779662 0.97062446736245278 -0.51021866950580086 -0.68427896878636507 -1.6471360722020194 0.21153144817536318 -0.274224418667259 1.7259975466698276 1.3241865784283757 -2.6398447933375091 -0.080558709889822069 -2.0351080336899483 -1.4612377612500038
 -0.59664339028617464 -2.0448179883372153 2.0569840731768902 1.9510090941997118 0.17637699071113047 -2.161412177602033 -0.40394736234168599 1.8015753247457209 -1.5627873915110959 -0.25253003929280637 0.2358649699429759 0.71656698773743122 1.076890918599464 -0.35457278688405552 -1.6774305813368557 -0.12939254709718359 -0.67488848843158988 1.1406653465865191 1.324312372373549 3.2115848427114373 -2.1588889819702626 -2.6016408210752151 -3.2226466025240885 -1.8961290648225964 -0.87488068485561998 2.510386276966595
 -0.87794906707956544 0.43441120175302989 -0.93161049064119617 0.18390777691057442 -0.36078216069357794 0.61958137409373848 0.38624948166211026 -2.6515034313976891 2.2971077346524007 -2.0881809848556685 -1.863823227000768 1.0605783595561582 0.77562146497137419 2.1346860995374031 -1.1497370210739786 -0.52081426099799422 0.99743428739640116 -1.4830935316973008 -2.3139424017684158 0.29517333102761167 -0.38704879027806904 -2.2060769682025567 0.30702190842421156 -1.176461138529405 -1.6346296645960512 -0.82467661350686894
 -0.52746527260662068 1.2156428794395695 -1.5009598135419859 -2.031953588396862 -1.5236673397793215 -2.4373207889114794 -2.3757031128158501 -1.3998727730969904 -0.88735314541708865 -0.63278872929446084 1.504501756021654 -1.5807630025806623 0.58599216622588657 -0.77540416237956256 0.94257330644384685 2.1091965265030792 0.54479131934762171 0.43773611565942128 -1.2802422834751888 -0.043609935199723227 1.4774996992125504 -1.132769492499667 -0.72846904149956471 0.047347162898900147 1.6574566028617703 1.6854094442671426
 -0.74901540095063512 -0.72249056084786623 -3.1522817286704385 0.36577778286968199 0.19811362323226309 -0.73059945600488296 1.6526391805336158 -2.3003570014513022 -1.8746816207241972 0.98095386865222745 -1.5882515915992972 1.3543414152595086 2.1789533103538301 -1.9923976174331528 -2.0037136177390429 -0.38861299982407349 -2.3399297597499236 -2.9171906172216371 0.99398645363017324 -2.704767680310177 -1.2713977183595093 1.8609146115527324 -1.2051940397787264 -0.3801419449120953 0.70871810089252685 -2.11014002922097
 -0.66654680277954204 0.53601844593602843 1.3030757311227075 -1.0337271373609587 -4.030847527504247 0.58173469048327731 -2.6571790171268939 0.80379993760594437 -1.0924192798153671 2.4991005799130241 0.36200799919111754 0.66195337230485685 -0.92160534084498036 -0.83123665632275945 -2.0020095161061828 -2.948975013309282 0.64564202086394185 -1.1011469386419384 0.74510308939481062 0.58506717119073748 -1.9954525138255501 0.62591104506279316 1.8059610257299108 -0.22309315068689262 -1.4044213617834815 -2.1319153038861769
 -0.46089119112438298 -1.4394495400773304 -1.2180950867100249 0.71093010963938719 0.45216919337465805 -0.35953380788149186 0.62284954490747158 -0.67005296795096603 -0.70691380041986096 0.063113507735118257 -1.2319907359956548 -1.7464523308667277 -2.7196089725951591 -2.2143717768430302 -1.6930750544789024 -0.90927394079918999 0.87852310805706324 1.1866481375772233 -1.8704126213590255 0.39796295113814989 1.7211387181167401 -1.3693405525627171 0.85806680103467259 -0.2477957876699243 1.2800911800247914 -1.3275204189639918
